<?xml version="1.0"?>
<opencv_storage>
<stage11>
  <maxWeakCount>89</maxWeakCount>
  <stageThreshold>-1.6237736940383911e+00</stageThreshold>
  <weakClassifiers>
    <_>
      <internalNodes>
        0 -1 162448 2.3348720278590918e-03</internalNodes>
      <leafValues>
        -3.9737406373023987e-01 1.1316776275634766e-01</leafValues></_>
    <_>
      <internalNodes>
        0 -1 245284 -1.4546951279044151e-02</internalNodes>
      <leafValues>
        4.7098034620285034e-01 -1.1370042711496353e-01</leafValues></_>
    <_>
      <internalNodes>
        0 -1 96365 1.9171101972460747e-02</internalNodes>
      <leafValues>
        -8.4513522684574127e-02 4.4494065642356873e-01</leafValues></_>
    <_>
      <internalNodes>
        0 -1 239196 3.7919371388852596e-03</internalNodes>
      <leafValues>
        7.0883214473724365e-02 -4.8544871807098389e-01</leafValues></_>
    <_>
      <internalNodes>
        0 -1 148938 -1.6187247820198536e-03</internalNodes>
      <leafValues>
        1.9640356302261353e-01 -2.0577535033226013e-01</leafValues></_>
    <_>
      <internalNodes>
        0 -1 203691 1.5238887863233685e-04</internalNodes>
      <leafValues>
        1.4024008810520172e-01 -2.7292594313621521e-01</leafValues></_>
    <_>
      <internalNodes>
        0 -1 90505 -1.2984876334667206e-01</internalNodes>
      <leafValues>
        -5.7362830638885498e-01 6.7644760012626648e-02</leafValues></_>
    <_>
      <internalNodes>
        0 -1 177893 7.7083159703761339e-04</internalNodes>
      <leafValues>
        -2.3952034115791321e-01 1.2726350128650665e-01</leafValues></_>
    <_>
      <internalNodes>
        0 -1 254430 2.6620035991072655e-02</internalNodes>
      <leafValues>
        -7.1192540228366852e-02 4.3363201618194580e-01</leafValues></_>
    <_>
      <internalNodes>
        0 -1 62604 -8.5513703525066376e-03</internalNodes>
      <leafValues>
        -5.8073920011520386e-01 5.7411950081586838e-02</leafValues></_>
    <_>
      <internalNodes>
        0 -1 249494 -4.2333714663982391e-03</internalNodes>
      <leafValues>
        2.6176407933235168e-01 -1.1640212684869766e-01</leafValues></_>
    <_>
      <internalNodes>
        0 -1 251240 -1.3817660510540009e-03</internalNodes>
      <leafValues>
        -3.8498309254646301e-01 8.9859247207641602e-02</leafValues></_>
    <_>
      <internalNodes>
        0 -1 66861 -4.3292507529258728e-02</internalNodes>
      <leafValues>
        3.4549066424369812e-01 -8.9382149279117584e-02</leafValues></_>
    <_>
      <internalNodes>
        0 -1 17810 -3.1237956136465073e-02</internalNodes>
      <leafValues>
        3.2522922754287720e-01 -9.4624452292919159e-02</leafValues></_>
    <_>
      <internalNodes>
        0 -1 134795 2.1304488182067871e-03</internalNodes>
      <leafValues>
        6.1260592192411423e-02 -3.9805415272712708e-01</leafValues></_>
    <_>
      <internalNodes>
        0 -1 187206 -2.6366633828729391e-03</internalNodes>
      <leafValues>
        2.4710099399089813e-01 -1.0623785853385925e-01</leafValues></_>
    <_>
      <internalNodes>
        0 -1 80818 -7.2226906195282936e-03</internalNodes>
      <leafValues>
        2.7953740954399109e-01 -9.5728501677513123e-02</leafValues></_>
    <_>
      <internalNodes>
        0 -1 162312 -5.1714871078729630e-03</internalNodes>
      <leafValues>
        -6.1037760972976685e-01 5.1863178610801697e-02</leafValues></_>
    <_>
      <internalNodes>
        0 -1 220654 -5.0795031711459160e-03</internalNodes>
      <leafValues>
        1.9938802719116211e-01 -1.3073725998401642e-01</leafValues></_>
    <_>
      <internalNodes>
        0 -1 203687 -2.3699588200543076e-04</internalNodes>
      <leafValues>
        -2.6631763577461243e-01 9.6320047974586487e-02</leafValues></_>
    <_>
      <internalNodes>
        0 -1 122325 1.9368760287761688e-02</internalNodes>
      <leafValues>
        -8.7240643799304962e-02 3.1365779042243958e-01</leafValues></_>
    <_>
      <internalNodes>
        0 -1 174192 -5.5963592603802681e-03</internalNodes>
      <leafValues>
        -5.4534387588500977e-01 5.6201029568910599e-02</leafValues></_>
    <_>
      <internalNodes>
        0 -1 8777 4.4457763433456421e-03</internalNodes>
      <leafValues>
        -1.0981934517621994e-01 2.6527622342109680e-01</leafValues></_>
    <_>
      <internalNodes>
        0 -1 166104 3.6124722100794315e-04</internalNodes>
      <leafValues>
        -2.3005485534667969e-01 1.0630676895380020e-01</leafValues></_>
    <_>
      <internalNodes>
        0 -1 10709 -3.6421972326934338e-03</internalNodes>
      <leafValues>
        2.7041605114936829e-01 -9.7149342298507690e-02</leafValues></_>
    <_>
      <internalNodes>
        0 -1 135592 2.5393563555553555e-04</internalNodes>
      <leafValues>
        9.1214470565319061e-02 -2.7810403704643250e-01</leafValues></_>
    <_>
      <internalNodes>
        0 -1 254572 -5.3255362436175346e-03</internalNodes>
      <leafValues>
        2.6672434806823730e-01 -9.3221798539161682e-02</leafValues></_>
    <_>
      <internalNodes>
        0 -1 254797 3.5799243487417698e-03</internalNodes>
      <leafValues>
        -1.1984915286302567e-01 2.4605955183506012e-01</leafValues></_>
    <_>
      <internalNodes>
        0 -1 242376 -6.9671487435698509e-03</internalNodes>
      <leafValues>
        -4.8593035340309143e-01 4.9651205539703369e-02</leafValues></_>
    <_>
      <internalNodes>
        0 -1 220283 -1.5979200601577759e-02</internalNodes>
      <leafValues>
        2.8511285781860352e-01 -9.1731533408164978e-02</leafValues></_>
    <_>
      <internalNodes>
        0 -1 45658 7.6582562178373337e-04</internalNodes>
      <leafValues>
        7.5524732470512390e-02 -3.2019972801208496e-01</leafValues></_>
    <_>
      <internalNodes>
        0 -1 25859 8.8760182261466980e-03</internalNodes>
      <leafValues>
        5.5209238082170486e-02 -4.0829998254776001e-01</leafValues></_>
    <_>
      <internalNodes>
        0 -1 169326 -1.3892088318243623e-03</internalNodes>
      <leafValues>
        2.5407946109771729e-01 -8.6875684559345245e-02</leafValues></_>
    <_>
      <internalNodes>
        0 -1 169487 2.2349287755787373e-03</internalNodes>
      <leafValues>
        -8.8552676141262054e-02 2.6845809817314148e-01</leafValues></_>
    <_>
      <internalNodes>
        0 -1 213070 -3.8086883723735809e-02</internalNodes>
      <leafValues>
        2.9461580514907837e-01 -7.6160870492458344e-02</leafValues></_>
    <_>
      <internalNodes>
        0 -1 238391 -5.0385221838951111e-03</internalNodes>
      <leafValues>
        -3.7689074873924255e-01 7.7211096882820129e-02</leafValues></_>
    <_>
      <internalNodes>
        0 -1 155501 4.2021466651931405e-04</internalNodes>
      <leafValues>
        -1.5359057486057281e-01 1.4350637793540955e-01</leafValues></_>
    <_>
      <internalNodes>
        0 -1 154748 1.1734400177374482e-03</internalNodes>
      <leafValues>
        7.0164300501346588e-02 -3.3904820680618286e-01</leafValues></_>
    <_>
      <internalNodes>
        0 -1 119220 -8.6256489157676697e-03</internalNodes>
      <leafValues>
        3.1925678253173828e-01 -7.5904473662376404e-02</leafValues></_>
    <_>
      <internalNodes>
        0 -1 132747 9.1712810099124908e-03</internalNodes>
      <leafValues>
        -8.0961592495441437e-02 3.5830083489418030e-01</leafValues></_>
    <_>
      <internalNodes>
        0 -1 191591 9.3307811766862869e-03</internalNodes>
      <leafValues>
        4.1330873966217041e-02 -6.0250759124755859e-01</leafValues></_>
    <_>
      <internalNodes>
        0 -1 111465 -1.3637010008096695e-02</internalNodes>
      <leafValues>
        2.9527074098587036e-01 -7.7059760689735413e-02</leafValues></_>
    <_>
      <internalNodes>
        0 -1 127110 1.3569591101258993e-04</internalNodes>
      <leafValues>
        1.1430877447128296e-01 -2.0617046952247620e-01</leafValues></_>
    <_>
      <internalNodes>
        0 -1 154236 -1.0369633324444294e-02</internalNodes>
      <leafValues>
        -4.8101559281349182e-01 4.4438026845455170e-02</leafValues></_>
    <_>
      <internalNodes>
        0 -1 205153 -1.2696150690317154e-02</internalNodes>
      <leafValues>
        2.4401196837425232e-01 -8.8658362627029419e-02</leafValues></_>
    <_>
      <internalNodes>
        0 -1 166399 7.3275424074381590e-04</internalNodes>
      <leafValues>
        -9.9071681499481201e-02 2.2421343624591827e-01</leafValues></_>
    <_>
      <internalNodes>
        0 -1 163834 -1.9679054617881775e-02</internalNodes>
      <leafValues>
        3.5355830192565918e-01 -6.7683555185794830e-02</leafValues></_>
    <_>
      <internalNodes>
        0 -1 139864 -1.7001099884510040e-02</internalNodes>
      <leafValues>
        -7.7880871295928955e-01 3.3276233822107315e-02</leafValues></_>
    <_>
      <internalNodes>
        0 -1 155340 -5.9521086513996124e-03</internalNodes>
      <leafValues>
        -5.2288800477981567e-01 3.3631980419158936e-02</leafValues></_>
    <_>
      <internalNodes>
        0 -1 30029 -1.9974051974713802e-03</internalNodes>
      <leafValues>
        -2.5334703922271729e-01 7.7360689640045166e-02</leafValues></_>
    <_>
      <internalNodes>
        0 -1 156060 4.3876627460122108e-03</internalNodes>
      <leafValues>
        -8.5025198757648468e-02 2.4435423314571381e-01</leafValues></_>
    <_>
      <internalNodes>
        0 -1 169108 -1.4900356763973832e-03</internalNodes>
      <leafValues>
        2.0068389177322388e-01 -1.1967659741640091e-01</leafValues></_>
    <_>
      <internalNodes>
        0 -1 261061 -2.4223215878009796e-02</internalNodes>
      <leafValues>
        2.8234413266181946e-01 -7.4832975864410400e-02</leafValues></_>
    <_>
      <internalNodes>
        0 -1 234605 5.4115699604153633e-03</internalNodes>
      <leafValues>
        -6.8731829524040222e-02 2.9358291625976562e-01</leafValues></_>
    <_>
      <internalNodes>
        0 -1 80224 -1.3316539116203785e-04</internalNodes>
      <leafValues>
        -1.9815535843372345e-01 1.0755571722984314e-01</leafValues></_>
    <_>
      <internalNodes>
        0 -1 62006 3.6825384013354778e-03</internalNodes>
      <leafValues>
        -6.9504581391811371e-02 3.0946043133735657e-01</leafValues></_>
    <_>
      <internalNodes>
        0 -1 80226 7.7294453512877226e-04</internalNodes>
      <leafValues>
        8.3415590226650238e-02 -3.1674885749816895e-01</leafValues></_>
    <_>
      <internalNodes>
        0 -1 61253 -2.8541432693600655e-03</internalNodes>
      <leafValues>
        2.1665576100349426e-01 -1.0607685893774033e-01</leafValues></_>
    <_>
      <internalNodes>
        0 -1 75045 2.3644370958209038e-03</internalNodes>
      <leafValues>
        5.4964214563369751e-02 -4.0246188640594482e-01</leafValues></_>
    <_>
      <internalNodes>
        0 -1 16689 -1.9446377456188202e-01</internalNodes>
      <leafValues>
        -7.7398598194122314e-01 2.3784818127751350e-02</leafValues></_>
    <_>
      <internalNodes>
        0 -1 121981 2.6572553906589746e-04</internalNodes>
      <leafValues>
        9.5553614199161530e-02 -2.1421210467815399e-01</leafValues></_>
    <_>
      <internalNodes>
        0 -1 179348 9.4637589063495398e-04</internalNodes>
      <leafValues>
        -6.7543566226959229e-02 3.0040121078491211e-01</leafValues></_>
    <_>
      <internalNodes>
        0 -1 241888 -2.3609055206179619e-03</internalNodes>
      <leafValues>
        -3.0477672815322876e-01 6.6621609032154083e-02</leafValues></_>
    <_>
      <internalNodes>
        0 -1 242413 1.9517026375979185e-03</internalNodes>
      <leafValues>
        8.1802390515804291e-02 -2.6867741346359253e-01</leafValues></_>
    <_>
      <internalNodes>
        0 -1 87962 3.3408030867576599e-03</internalNodes>
      <leafValues>
        -7.3023356497287750e-02 2.8695657849311829e-01</leafValues></_>
    <_>
      <internalNodes>
        0 -1 54871 9.0622089803218842e-02</internalNodes>
      <leafValues>
        4.5764595270156860e-02 -4.7217178344726562e-01</leafValues></_>
    <_>
      <internalNodes>
        0 -1 107204 9.8706260323524475e-03</internalNodes>
      <leafValues>
        -1.6240994632244110e-01 1.3765782117843628e-01</leafValues></_>
    <_>
      <internalNodes>
        0 -1 6085 -1.5153624117374420e-01</internalNodes>
      <leafValues>
        1.7296291887760162e-01 -1.2719734013080597e-01</leafValues></_>
    <_>
      <internalNodes>
        0 -1 4628 4.1824519634246826e-02</internalNodes>
      <leafValues>
        -5.9916425496339798e-02 4.1593602299690247e-01</leafValues></_>
    <_>
      <internalNodes>
        0 -1 255485 -2.6134200394153595e-02</internalNodes>
      <leafValues>
        -5.9784460067749023e-01 3.8757368922233582e-02</leafValues></_>
    <_>
      <internalNodes>
        0 -1 157121 4.1785982251167297e-01</internalNodes>
      <leafValues>
        1.9403405487537384e-02 -8.2062667608261108e-01</leafValues></_>
    <_>
      <internalNodes>
        0 -1 234334 5.6149205192923546e-03</internalNodes>
      <leafValues>
        4.9311891198158264e-02 -3.9831835031509399e-01</leafValues></_>
    <_>
      <internalNodes>
        0 -1 260056 5.3734434768557549e-03</internalNodes>
      <leafValues>
        -6.4013600349426270e-02 3.2872742414474487e-01</leafValues></_>
    <_>
      <internalNodes>
        0 -1 259833 -5.9211254119873047e-03</internalNodes>
      <leafValues>
        2.5384443998336792e-01 -8.7029732763767242e-02</leafValues></_>
    <_>
      <internalNodes>
        0 -1 186414 -4.3219435028731823e-03</internalNodes>
      <leafValues>
        -4.2125535011291504e-01 4.7906611114740372e-02</leafValues></_>
    <_>
      <internalNodes>
        0 -1 227150 8.3451671525835991e-03</internalNodes>
      <leafValues>
        -6.7779257893562317e-02 3.4580993652343750e-01</leafValues></_>
    <_>
      <internalNodes>
        0 -1 216787 -1.4093533158302307e-02</internalNodes>
      <leafValues>
        2.6021122932434082e-01 -8.6636409163475037e-02</leafValues></_>
    <_>
      <internalNodes>
        0 -1 238672 1.4598006964661181e-04</internalNodes>
      <leafValues>
        8.9566290378570557e-02 -2.2646839916706085e-01</leafValues></_>
    <_>
      <internalNodes>
        0 -1 11588 -3.0746790580451488e-03</internalNodes>
      <leafValues>
        2.1035020053386688e-01 -1.0309861600399017e-01</leafValues></_>
    <_>
      <internalNodes>
        0 -1 44856 -4.5611066743731499e-03</internalNodes>
      <leafValues>
        2.5976991653442383e-01 -8.0354876816272736e-02</leafValues></_>
    <_>
      <internalNodes>
        0 -1 162175 -5.6164956185966730e-04</internalNodes>
      <leafValues>
        -3.5042932629585266e-01 6.5493471920490265e-02</leafValues></_>
    <_>
      <internalNodes>
        0 -1 154512 -1.0000095702707767e-02</internalNodes>
      <leafValues>
        -8.1552702188491821e-01 2.3229559883475304e-02</leafValues></_>
    <_>
      <internalNodes>
        0 -1 159921 3.7644959986209869e-02</internalNodes>
      <leafValues>
        2.8774481266736984e-02 -5.7598435878753662e-01</leafValues></_>
    <_>
      <internalNodes>
        0 -1 4147 -2.7038995176553726e-03</internalNodes>
      <leafValues>
        1.3116000592708588e-01 -1.4987814426422119e-01</leafValues></_>
    <_>
      <internalNodes>
        0 -1 95655 -1.1997662950307131e-03</internalNodes>
      <leafValues>
        2.2420917451381683e-01 -8.6963720619678497e-02</leafValues></_>
    <_>
      <internalNodes>
        0 -1 78931 3.8538716034963727e-04</internalNodes>
      <leafValues>
        6.8375140428543091e-02 -2.7826893329620361e-01</leafValues></_>
    <_>
      <internalNodes>
        0 -1 125352 -1.3201434630900621e-03</internalNodes>
      <leafValues>
        1.9815167784690857e-01 -1.0238435119390488e-01</leafValues></_>
    <_>
      <internalNodes>
        0 -1 77005 -1.2840071320533752e-01</internalNodes>
      <leafValues>
        -7.1888560056686401e-01 2.9439680278301239e-02</leafValues></_>
    <_>
      <internalNodes>
        0 -1 99885 5.3830002434551716e-03</internalNodes>
      <leafValues>
        -6.6562272608280182e-02 3.0739128589630127e-01</leafValues></_></weakClassifiers></stage11>
</opencv_storage>
