<?xml version="1.0"?>
<opencv_storage>
<stage17>
  <maxWeakCount>100</maxWeakCount>
  <stageThreshold>-1.6585189104080200e+00</stageThreshold>
  <weakClassifiers>
    <_>
      <internalNodes>
        0 -1 175146 2.7293656021356583e-03</internalNodes>
      <leafValues>
        -3.9270153641700745e-01 1.0212569683790207e-01</leafValues></_>
    <_>
      <internalNodes>
        0 -1 211065 2.6588700711727142e-03</internalNodes>
      <leafValues>
        -1.9950427114963531e-01 2.0002330839633942e-01</leafValues></_>
    <_>
      <internalNodes>
        0 -1 7810 3.4449696540832520e-02</internalNodes>
      <leafValues>
        -1.1456425487995148e-01 3.1270027160644531e-01</leafValues></_>
    <_>
      <internalNodes>
        0 -1 161454 -2.8909358661621809e-03</internalNodes>
      <leafValues>
        1.4722946286201477e-01 -1.8982180953025818e-01</leafValues></_>
    <_>
      <internalNodes>
        0 -1 244861 5.3828610107302666e-03</internalNodes>
      <leafValues>
        1.2790243327617645e-01 -3.6001902818679810e-01</leafValues></_>
    <_>
      <internalNodes>
        0 -1 250849 -6.7123947665095329e-03</internalNodes>
      <leafValues>
        2.2195246815681458e-01 -1.4399814605712891e-01</leafValues></_>
    <_>
      <internalNodes>
        0 -1 61857 -7.7481055632233620e-03</internalNodes>
      <leafValues>
        -4.8927050828933716e-01 9.0270102024078369e-02</leafValues></_>
    <_>
      <internalNodes>
        0 -1 140402 2.7350122109055519e-03</internalNodes>
      <leafValues>
        -1.0608152300119400e-01 3.3554470539093018e-01</leafValues></_>
    <_>
      <internalNodes>
        0 -1 133284 -3.7611000239849091e-02</internalNodes>
      <leafValues>
        -3.7813565135002136e-01 6.4345903694629669e-02</leafValues></_>
    <_>
      <internalNodes>
        0 -1 105214 -4.9006585031747818e-03</internalNodes>
      <leafValues>
        -4.7247007489204407e-01 5.6909766048192978e-02</leafValues></_>
    <_>
      <internalNodes>
        0 -1 251011 7.6270159333944321e-03</internalNodes>
      <leafValues>
        -8.4569700062274933e-02 2.4578867852687836e-01</leafValues></_>
    <_>
      <internalNodes>
        0 -1 255716 -1.0370532982051373e-02</internalNodes>
      <leafValues>
        3.1129351258277893e-01 -8.5825458168983459e-02</leafValues></_>
    <_>
      <internalNodes>
        0 -1 90285 2.4275129660964012e-02</internalNodes>
      <leafValues>
        9.4008028507232666e-02 -2.3546440899372101e-01</leafValues></_>
    <_>
      <internalNodes>
        0 -1 105543 -7.8262705355882645e-03</internalNodes>
      <leafValues>
        -5.6599527597427368e-01 4.0476124733686447e-02</leafValues></_>
    <_>
      <internalNodes>
        0 -1 255957 3.0217566527426243e-03</internalNodes>
      <leafValues>
        6.2578499317169189e-02 -3.0034044384956360e-01</leafValues></_>
    <_>
      <internalNodes>
        0 -1 78923 -1.6522154211997986e-01</internalNodes>
      <leafValues>
        -6.5046864748001099e-01 3.8603425025939941e-02</leafValues></_>
    <_>
      <internalNodes>
        0 -1 114755 -1.4076035469770432e-02</internalNodes>
      <leafValues>
        2.1879915893077850e-01 -8.6619891226291656e-02</leafValues></_>
    <_>
      <internalNodes>
        0 -1 204216 3.0089211650192738e-03</internalNodes>
      <leafValues>
        -1.0149540007114410e-01 2.1510051190853119e-01</leafValues></_>
    <_>
      <internalNodes>
        0 -1 178948 -2.3842081427574158e-03</internalNodes>
      <leafValues>
        -4.3620789051055908e-01 4.5449007302522659e-02</leafValues></_>
    <_>
      <internalNodes>
        0 -1 234727 -1.4269942417740822e-02</internalNodes>
      <leafValues>
        2.5651064515113831e-01 -7.9953521490097046e-02</leafValues></_>
    <_>
      <internalNodes>
        0 -1 241756 5.2823033183813095e-03</internalNodes>
      <leafValues>
        -9.4010092318058014e-02 2.2878810763359070e-01</leafValues></_>
    <_>
      <internalNodes>
        0 -1 234224 -7.7567044645547867e-03</internalNodes>
      <leafValues>
        2.2291740775108337e-01 -1.0051787644624710e-01</leafValues></_>
    <_>
      <internalNodes>
        0 -1 148799 -1.1632557725533843e-03</internalNodes>
      <leafValues>
        -4.7147223353385925e-01 4.9697916954755783e-02</leafValues></_>
    <_>
      <internalNodes>
        0 -1 236204 -2.2309528663754463e-02</internalNodes>
      <leafValues>
        -5.8036172389984131e-01 2.6427546516060829e-02</leafValues></_>
    <_>
      <internalNodes>
        0 -1 125352 -2.6784925721585751e-03</internalNodes>
      <leafValues>
        2.2091197967529297e-01 -8.4477506577968597e-02</leafValues></_>
    <_>
      <internalNodes>
        0 -1 248802 -2.5500641204416752e-03</internalNodes>
      <leafValues>
        -3.0829805135726929e-01 6.5721616148948669e-02</leafValues></_>
    <_>
      <internalNodes>
        0 -1 253080 2.4383675772696733e-03</internalNodes>
      <leafValues>
        7.7091686427593231e-02 -2.3361700773239136e-01</leafValues></_>
    <_>
      <internalNodes>
        0 -1 196316 -9.3201743438839912e-03</internalNodes>
      <leafValues>
        -2.3686662316322327e-01 8.2249335944652557e-02</leafValues></_>
    <_>
      <internalNodes>
        0 -1 177094 -3.8149498868733644e-04</internalNodes>
      <leafValues>
        2.0200003683567047e-01 -1.0239691287279129e-01</leafValues></_>
    <_>
      <internalNodes>
        0 -1 247573 6.2724128365516663e-03</internalNodes>
      <leafValues>
        -8.1518828868865967e-02 2.1612505614757538e-01</leafValues></_>
    <_>
      <internalNodes>
        0 -1 184315 -2.4677550420165062e-02</internalNodes>
      <leafValues>
        2.0092909038066864e-01 -9.7108215093612671e-02</leafValues></_>
    <_>
      <internalNodes>
        0 -1 91373 -8.5539177060127258e-02</internalNodes>
      <leafValues>
        -3.3283880352973938e-01 5.5280297994613647e-02</leafValues></_>
    <_>
      <internalNodes>
        0 -1 39742 4.8232454806566238e-02</internalNodes>
      <leafValues>
        4.1798103600740433e-02 -3.8505980372428894e-01</leafValues></_>
    <_>
      <internalNodes>
        0 -1 135714 -5.5800583213567734e-03</internalNodes>
      <leafValues>
        -5.3296130895614624e-01 2.9227023944258690e-02</leafValues></_>
    <_>
      <internalNodes>
        0 -1 121505 4.5535515993833542e-02</internalNodes>
      <leafValues>
        -3.9544239640235901e-02 5.0329440832138062e-01</leafValues></_>
    <_>
      <internalNodes>
        0 -1 237210 -9.5966774970293045e-03</internalNodes>
      <leafValues>
        -6.4327609539031982e-01 3.1718581914901733e-02</leafValues></_>
    <_>
      <internalNodes>
        0 -1 153766 -2.0130043849349022e-03</internalNodes>
      <leafValues>
        2.3311619460582733e-01 -8.3441980183124542e-02</leafValues></_>
    <_>
      <internalNodes>
        0 -1 257972 5.6439749896526337e-03</internalNodes>
      <leafValues>
        -6.0521576553583145e-02 2.7114301919937134e-01</leafValues></_>
    <_>
      <internalNodes>
        0 -1 258152 -3.5102837719023228e-03</internalNodes>
      <leafValues>
        2.4142289161682129e-01 -1.0444572567939758e-01</leafValues></_>
    <_>
      <internalNodes>
        0 -1 148799 1.6836798749864101e-04</internalNodes>
      <leafValues>
        7.3630668222904205e-02 -2.2916382551193237e-01</leafValues></_>
    <_>
      <internalNodes>
        0 -1 22033 2.2627866268157959e-01</internalNodes>
      <leafValues>
        -3.4004900604486465e-02 5.1021188497543335e-01</leafValues></_>
    <_>
      <internalNodes>
        0 -1 95363 6.9134766235947609e-03</internalNodes>
      <leafValues>
        6.0755949467420578e-02 -3.2035049796104431e-01</leafValues></_>
    <_>
      <internalNodes>
        0 -1 109996 -1.1430666199885309e-04</internalNodes>
      <leafValues>
        1.1564341187477112e-01 -1.4019687473773956e-01</leafValues></_>
    <_>
      <internalNodes>
        0 -1 163907 -9.0602372074499726e-04</internalNodes>
      <leafValues>
        1.8332308530807495e-01 -8.8125362992286682e-02</leafValues></_>
    <_>
      <internalNodes>
        0 -1 96398 4.5041805133223534e-03</internalNodes>
      <leafValues>
        4.1383892297744751e-02 -4.0922632813453674e-01</leafValues></_>
    <_>
      <internalNodes>
        0 -1 98118 5.6972764432430267e-03</internalNodes>
      <leafValues>
        -5.4639730602502823e-02 3.0476951599121094e-01</leafValues></_>
    <_>
      <internalNodes>
        0 -1 181564 3.7245927378535271e-03</internalNodes>
      <leafValues>
        -5.5682405829429626e-02 2.8659200668334961e-01</leafValues></_>
    <_>
      <internalNodes>
        0 -1 154621 -1.4846073463559151e-03</internalNodes>
      <leafValues>
        -4.7301509976387024e-01 3.6377362906932831e-02</leafValues></_>
    <_>
      <internalNodes>
        0 -1 146995 -1.1088725179433823e-02</internalNodes>
      <leafValues>
        2.7517578005790710e-01 -6.6277638077735901e-02</leafValues></_>
    <_>
      <internalNodes>
        0 -1 155446 -2.5175418704748154e-03</internalNodes>
      <leafValues>
        1.3229173421859741e-01 -1.1866718530654907e-01</leafValues></_>
    <_>
      <internalNodes>
        0 -1 4399 -3.8991235196590424e-02</internalNodes>
      <leafValues>
        1.6871954500675201e-01 -9.9619016051292419e-02</leafValues></_>
    <_>
      <internalNodes>
        0 -1 126380 -8.9886942878365517e-03</internalNodes>
      <leafValues>
        -3.3854535222053528e-01 5.3879987448453903e-02</leafValues></_>
    <_>
      <internalNodes>
        0 -1 213071 -4.4003643095493317e-02</internalNodes>
      <leafValues>
        2.7907857298851013e-01 -6.4988449215888977e-02</leafValues></_>
    <_>
      <internalNodes>
        0 -1 245639 -3.4365016035735607e-03</internalNodes>
      <leafValues>
        -3.2148271799087524e-01 5.6377906352281570e-02</leafValues></_>
    <_>
      <internalNodes>
        0 -1 258567 2.2811861708760262e-03</internalNodes>
      <leafValues>
        -9.3991965055465698e-02 1.8660452961921692e-01</leafValues></_>
    <_>
      <internalNodes>
        0 -1 109213 -1.2017800472676754e-02</internalNodes>
      <leafValues>
        2.3570384085178375e-01 -6.6556878387928009e-02</leafValues></_>
    <_>
      <internalNodes>
        0 -1 94343 -7.6363100670278072e-03</internalNodes>
      <leafValues>
        -4.8357105255126953e-01 3.3731210976839066e-02</leafValues></_>
    <_>
      <internalNodes>
        0 -1 67536 4.8139035701751709e-02</internalNodes>
      <leafValues>
        -4.4336084276437759e-02 3.7665653228759766e-01</leafValues></_>
    <_>
      <internalNodes>
        0 -1 105128 6.9936295039951801e-03</internalNodes>
      <leafValues>
        -5.2963640540838242e-02 2.7791818976402283e-01</leafValues></_>
    <_>
      <internalNodes>
        0 -1 144947 -8.2220342010259628e-03</internalNodes>
      <leafValues>
        2.2990657389163971e-01 -9.1437883675098419e-02</leafValues></_>
    <_>
      <internalNodes>
        0 -1 148976 -1.4460950158536434e-02</internalNodes>
      <leafValues>
        -4.8612490296363831e-01 3.3245045691728592e-02</leafValues></_>
    <_>
      <internalNodes>
        0 -1 163786 2.5143940001726151e-04</internalNodes>
      <leafValues>
        7.2471305727958679e-02 -2.2947135567665100e-01</leafValues></_>
    <_>
      <internalNodes>
        0 -1 228312 2.2599941585212946e-03</internalNodes>
      <leafValues>
        -1.0091729462146759e-01 1.7338146269321442e-01</leafValues></_>
    <_>
      <internalNodes>
        0 -1 208755 -6.5922904759645462e-03</internalNodes>
      <leafValues>
        2.4053220450878143e-01 -6.9165080785751343e-02</leafValues></_>
    <_>
      <internalNodes>
        0 -1 107360 2.8937633614987135e-03</internalNodes>
      <leafValues>
        7.8562393784523010e-02 -2.1666584908962250e-01</leafValues></_>
    <_>
      <internalNodes>
        0 -1 80915 -2.2092115134000778e-02</internalNodes>
      <leafValues>
        3.6281630396842957e-01 -4.6435937285423279e-02</leafValues></_>
    <_>
      <internalNodes>
        0 -1 81322 1.1785059235990047e-02</internalNodes>
      <leafValues>
        -4.7865688800811768e-02 3.1878069043159485e-01</leafValues></_>
    <_>
      <internalNodes>
        0 -1 244779 8.6003181058913469e-04</internalNodes>
      <leafValues>
        5.2436638623476028e-02 -3.1148138642311096e-01</leafValues></_>
    <_>
      <internalNodes>
        0 -1 68084 -7.2372434660792351e-03</internalNodes>
      <leafValues>
        1.6134712100028992e-01 -1.0133136808872223e-01</leafValues></_>
    <_>
      <internalNodes>
        0 -1 217498 -2.1480966359376907e-02</internalNodes>
      <leafValues>
        3.0985486507415771e-01 -5.4580014199018478e-02</leafValues></_>
    <_>
      <internalNodes>
        0 -1 128067 -8.3436649292707443e-03</internalNodes>
      <leafValues>
        -3.7556761503219604e-01 4.6351786702871323e-02</leafValues></_>
    <_>
      <internalNodes>
        0 -1 600 1.4266445068642497e-03</internalNodes>
      <leafValues>
        -1.3029809296131134e-01 1.2170106917619705e-01</leafValues></_>
    <_>
      <internalNodes>
        0 -1 98333 1.2510857544839382e-02</internalNodes>
      <leafValues>
        3.8031838834285736e-02 -4.8489651083946228e-01</leafValues></_>
    <_>
      <internalNodes>
        0 -1 113642 -5.0405729562044144e-03</internalNodes>
      <leafValues>
        2.0686876773834229e-01 -7.7773079276084900e-02</leafValues></_>
    <_>
      <internalNodes>
        0 -1 256171 -2.3869425058364868e-03</internalNodes>
      <leafValues>
        3.4169697761535645e-01 -4.3737534433603287e-02</leafValues></_>
    <_>
      <internalNodes>
        0 -1 92513 -3.4158467315137386e-03</internalNodes>
      <leafValues>
        -3.5002517700195312e-01 4.5985683798789978e-02</leafValues></_>
    <_>
      <internalNodes>
        0 -1 261599 -2.8810814910684712e-05</internalNodes>
      <leafValues>
        1.3122899830341339e-01 -1.2061348557472229e-01</leafValues></_>
    <_>
      <internalNodes>
        0 -1 189561 2.3971572518348694e-03</internalNodes>
      <leafValues>
        -1.1496176570653915e-01 1.3420720398426056e-01</leafValues></_>
    <_>
      <internalNodes>
        0 -1 177346 -1.4132224023342133e-02</internalNodes>
      <leafValues>
        3.9662739634513855e-01 -4.2246539145708084e-02</leafValues></_>
    <_>
      <internalNodes>
        0 -1 209763 -1.0135745629668236e-02</internalNodes>
      <leafValues>
        -5.4863911867141724e-01 3.1259883195161819e-02</leafValues></_>
    <_>
      <internalNodes>
        0 -1 258994 -3.6190240643918514e-03</internalNodes>
      <leafValues>
        1.9703875482082367e-01 -7.8482411801815033e-02</leafValues></_>
    <_>
      <internalNodes>
        0 -1 223024 4.0510133840143681e-04</internalNodes>
      <leafValues>
        7.8866273164749146e-02 -1.9909697771072388e-01</leafValues></_>
    <_>
      <internalNodes>
        0 -1 161817 1.8555233255028725e-02</internalNodes>
      <leafValues>
        -4.6973209828138351e-02 3.0977019667625427e-01</leafValues></_>
    <_>
      <internalNodes>
        0 -1 204710 4.6359896659851074e-02</internalNodes>
      <leafValues>
        3.2577160745859146e-02 -5.2692979574203491e-01</leafValues></_>
    <_>
      <internalNodes>
        0 -1 244781 -1.2233736924827099e-03</internalNodes>
      <leafValues>
        -2.8673273324966431e-01 4.9063839018344879e-02</leafValues></_>
    <_>
      <internalNodes>
        0 -1 202052 -4.2582415044307709e-03</internalNodes>
      <leafValues>
        7.6331400871276855e-01 -2.0881151780486107e-02</leafValues></_>
    <_>
      <internalNodes>
        0 -1 62043 1.4919193927198648e-04</internalNodes>
      <leafValues>
        8.6341701447963715e-02 -1.6363289952278137e-01</leafValues></_>
    <_>
      <internalNodes>
        0 -1 62116 -1.3038059696555138e-03</internalNodes>
      <leafValues>
        -2.7693367004394531e-01 5.4050229489803314e-02</leafValues></_>
    <_>
      <internalNodes>
        0 -1 191162 -1.3199014356359839e-03</internalNodes>
      <leafValues>
        2.1956048905849457e-01 -7.6311200857162476e-02</leafValues></_>
    <_>
      <internalNodes>
        0 -1 191632 1.0937836486846209e-03</internalNodes>
      <leafValues>
        -5.7361014187335968e-02 3.1868034601211548e-01</leafValues></_>
    <_>
      <internalNodes>
        0 -1 181481 -3.4908782690763474e-03</internalNodes>
      <leafValues>
        -3.6179783940315247e-01 4.2195405811071396e-02</leafValues></_>
    <_>
      <internalNodes>
        0 -1 3955 -2.1620169281959534e-01</internalNodes>
      <leafValues>
        -5.3692042827606201e-01 2.8201071545481682e-02</leafValues></_>
    <_>
      <internalNodes>
        0 -1 218930 4.8846071586012840e-03</internalNodes>
      <leafValues>
        2.3613505065441132e-02 -6.1131280660629272e-01</leafValues></_>
    <_>
      <internalNodes>
        0 -1 248635 -2.2921821800991893e-04</internalNodes>
      <leafValues>
        9.5643341541290283e-02 -1.5173362195491791e-01</leafValues></_>
    <_>
      <internalNodes>
        0 -1 243593 -6.4380660653114319e-02</internalNodes>
      <leafValues>
        -6.1575663089752197e-01 2.3281414061784744e-02</leafValues></_>
    <_>
      <internalNodes>
        0 -1 260991 9.0353738050907850e-04</internalNodes>
      <leafValues>
        -5.6139945983886719e-02 2.6629954576492310e-01</leafValues></_>
    <_>
      <internalNodes>
        0 -1 260991 -4.0005100890994072e-04</internalNodes>
      <leafValues>
        1.9058842957019806e-01 -7.6443493366241455e-02</leafValues></_>
    <_>
      <internalNodes>
        0 -1 106510 4.6952452976256609e-04</internalNodes>
      <leafValues>
        -1.4277933537960052e-01 9.9769704043865204e-02</leafValues></_>
    <_>
      <internalNodes>
        0 -1 147270 7.8069500625133514e-02</internalNodes>
      <leafValues>
        -3.1703799962997437e-02 5.5558001995086670e-01</leafValues></_>
    <_>
      <internalNodes>
        0 -1 85704 -8.0010086297988892e-02</internalNodes>
      <leafValues>
        -4.6899989247322083e-01 4.0598716586828232e-02</leafValues></_></weakClassifiers></stage17>
</opencv_storage>
